<?xml version="1.0"?>
<opencv_storage>
<cascade>
  <stageType>BOOST</stageType>
  <featureType>LBP</featureType>
  <height>64</height>
  <width>128</width>
  <stageParams>
    <boostType>GAB</boostType>
    <minHitRate>9.9989998340606689e-01</minHitRate>
    <maxFalseAlarm>5.0000000000000000e-01</maxFalseAlarm>
    <weightTrimRate>9.4999999999999996e-01</weightTrimRate>
    <maxDepth>1</maxDepth>
    <maxWeakCount>100</maxWeakCount></stageParams>
  <featureParams>
    <maxCatCount>256</maxCatCount>
    <featSize>1</featSize></featureParams>
  <stageNum>15</stageNum>
  <stages>
    <!-- stage 0 -->
    <_>
      <maxWeakCount>3</maxWeakCount>
      <stageThreshold>-1.2263242006301880e+00</stageThreshold>
      <weakClassifiers>
        <_>
          <internalNodes>
            0 -1 76 -3148973 -200023677 -2147315575 -720396141
            -1052907003 -125698047 -763042159 -68158609</internalNodes>
          <leafValues>
            -8.9761573076248169e-01 6.9815194606781006e-01</leafValues></_>
        <_>
          <internalNodes>
            0 -1 17 -784008482 -15613808 -1875853238 -544102399
            -508706625 -226458973 -106300709 -2103297</internalNodes>
          <leafValues>
            -8.2819080352783203e-01 6.9423013925552368e-01</leafValues></_>
        <_>
          <internalNodes>
            0 -1 70 -618136820 -111683561 -788430460 -72101749
            -268044056 -125632351 -209613944 -2065</internalNodes>
          <leafValues>
            -9.2778503894805908e-01 4.9948227405548096e-01</leafValues></_></weakClassifiers></_>
    <!-- stage 1 -->
    <_>
      <maxWeakCount>5</maxWeakCount>
      <stageThreshold>-1.2657204866409302e+00</stageThreshold>
      <weakClassifiers>
        <_>
          <internalNodes>
            0 -1 32 -20190486 1879539790 -1073709054 1967243503
            -1047805521 1090617478 -1231052085 -134218241</internalNodes>
          <leafValues>
            -8.0178940296173096e-01 5.9662091732025146e-01</leafValues></_>
        <_>
          <internalNodes>
            0 -1 79 -201851937 -102789101 -1048330100 -242495229
            1653072181 -645693309 -1725315008 -9442631</internalNodes>
          <leafValues>
            -8.4157991409301758e-01 5.2155494689941406e-01</leafValues></_>
        <_>
          <internalNodes>
            0 -1 13 1507852030 1414955706 1363575046 -137312746
            1077053435 1635876890 -791704935 -436868565</internalNodes>
          <leafValues>
            -7.9994046688079834e-01 5.3041803836822510e-01</leafValues></_>
        <_>
          <internalNodes>
            0 -1 47 -951582726 -1276001341 -2130664660 -183330937
            -259606033 -232677344 1082780351 -1292507153</internalNodes>
          <leafValues>
            -6.9704151153564453e-01 6.4602136611938477e-01</leafValues></_>
        <_>
          <internalNodes>
            0 -1 60 1560673066 -636247765 1811972108 -611221502
            -521932118 1879244803 -1031339830 1937320683</internalNodes>
          <leafValues>
            -7.9879063367843628e-01 5.7087075710296631e-01</leafValues></_></weakClassifiers></_>
    <!-- stage 2 -->
    <_>
      <maxWeakCount>5</maxWeakCount>
      <stageThreshold>-1.1161748170852661e+00</stageThreshold>
      <weakClassifiers>
        <_>
          <internalNodes>
            0 -1 81 -2697 -710967089 1124651011 -174997245 -532417775
            -1702100797 -750565369 -4097</internalNodes>
          <leafValues>
            -7.5033026933670044e-01 6.0496616363525391e-01</leafValues></_>
        <_>
          <internalNodes>
            0 -1 1 -959521842 -1784884746 335561562 -169938647
            -243080961 -668991310 -878188369 -287761</internalNodes>
          <leafValues>
            -7.9281401634216309e-01 5.0491172075271606e-01</leafValues></_>
        <_>
          <internalNodes>
            0 -1 52 -152048694 1985468579 -1027436286 -49557061
            696762767 1880752202 -697974161 -411051078</internalNodes>
          <leafValues>
            -6.8346434831619263e-01 5.6758195161819458e-01</leafValues></_>
        <_>
          <internalNodes>
            0 -1 36 -205263254 1943388287 -1023241596 860430353
            -1018455740 -1073708925 277209669 -436770145</internalNodes>
          <leafValues>
            -7.1111816167831421e-01 5.4240930080413818e-01</leafValues></_>
        <_>
          <internalNodes>
            0 -1 24 -573576254 315089958 302055500 -238616426 142797244
            9081098 -930430293 -1583647853</internalNodes>
          <leafValues>
            -6.7603266239166260e-01 5.7050567865371704e-01</leafValues></_></weakClassifiers></_>
    <!-- stage 3 -->
    <_>
      <maxWeakCount>5</maxWeakCount>
      <stageThreshold>-1.1311346292495728e+00</stageThreshold>
      <weakClassifiers>
        <_>
          <internalNodes>
            0 -1 80 -3146939 -1048346457 -1073444719 -796687729
            -934622955 -1065156573 -1056837215 -36706385</internalNodes>
          <leafValues>
            -8.3008575439453125e-01 4.1629365086555481e-01</leafValues></_>
        <_>
          <internalNodes>
            0 -1 43 -624164865 1434706087 -264056125 1360085131
            -992020257 1086603715 -877924549 1372581871</internalNodes>
          <leafValues>
            -6.7300665378570557e-01 5.8597898483276367e-01</leafValues></_>
        <_>
          <internalNodes>
            0 -1 6 -465509982 -172596757 -977254993 -1113648890
            -342261057 -1164345093 -1452766721 -4511190</internalNodes>
          <leafValues>
            -8.4949010610580444e-01 4.6443444490432739e-01</leafValues></_>
        <_>
          <internalNodes>
            0 -1 19 2002757591 1648558166 -804998847 -527498560
            1073971906 1073856904 -2122063609 -714763089</internalNodes>
          <leafValues>
            -6.3822692632675171e-01 5.8966535329818726e-01</leafValues></_>
        <_>
          <internalNodes>
            0 -1 48 1990981611 -435814420 541878092 -1845367996
            -1929388066 -916623491 -1728186049 -813045921</internalNodes>
          <leafValues>
            -5.8860456943511963e-01 6.1329537630081177e-01</leafValues></_></weakClassifiers></_>
    <!-- stage 4 -->
    <_>
      <maxWeakCount>5</maxWeakCount>
      <stageThreshold>-1.1611876487731934e+00</stageThreshold>
      <weakClassifiers>
        <_>
          <internalNodes>
            0 -1 78 -171969153 -650653563 -760790191 -571506553
            -125065435 -98376378 -544493003 -67110673</internalNodes>
          <leafValues>
            -7.2477066516876221e-01 5.7894736528396606e-01</leafValues></_>
        <_>
          <internalNodes>
            0 -1 31 -214985270 -674560736 -1310850900 -136904229
            852691119 -1089920760 981765583 -109885261</internalNodes>
          <leafValues>
            -7.1641331911087036e-01 5.4191577434539795e-01</leafValues></_>
        <_>
          <internalNodes>
            0 -1 11 1345954702 1423132042 1358987397 -161496573 760223
            -733902847 -1597390625 -7345461</internalNodes>
          <leafValues>
            -6.5545392036437988e-01 5.6219196319580078e-01</leafValues></_>
        <_>
          <internalNodes>
            0 -1 73 -745831972 -720173799 1073992024 387969051
            -1205215816 -1175224181 -1157191464 -2102631</internalNodes>
          <leafValues>
            -7.6012068986892700e-01 4.6582636237144470e-01</leafValues></_>
        <_>
          <internalNodes>
            0 -1 28 2102087240 -1031311158 1342586952 -1063007540
            -1308380985 -1061977454 -662069172 -608580897</internalNodes>
          <leafValues>
            -7.4802201986312866e-01 4.7929012775421143e-01</leafValues></_></weakClassifiers></_>
    <!-- stage 5 -->
    <_>
      <maxWeakCount>5</maxWeakCount>
      <stageThreshold>-1.0405454635620117e+00</stageThreshold>
      <weakClassifiers>
        <_>
          <internalNodes>
            0 -1 61 -169872897 353575091 117555227 -716103095 1150372523
            1360199713 -1333547378 -251273053</internalNodes>
          <leafValues>
            -6.9794905185699463e-01 6.6118836402893066e-01</leafValues></_>
        <_>
          <internalNodes>
            0 -1 25 -749504530 2080054019 1662501580 266289439
            -1329622789 1403093155 -378919953 -1354823629</internalNodes>
          <leafValues>
            -6.3552951812744141e-01 5.4763370752334595e-01</leafValues></_>
        <_>
          <internalNodes>
            0 -1 0 -993213234 -1874329471 -738021110 939823122
            -2083802693 1610616832 -1019018341 -830494321</internalNodes>
          <leafValues>
            -6.9256103038787842e-01 4.9901375174522400e-01</leafValues></_>
        <_>
          <internalNodes>
            0 -1 74 -287309965 -1416265585 269090893 -102428339
            1074425973 -804683581 -2104987611 -70532233</internalNodes>
          <leafValues>
            -7.4237066507339478e-01 4.8031353950500488e-01</leafValues></_>
        <_>
          <internalNodes>
            0 -1 10 1388831726 1539705051 -805236708 -178386813
            -1492151826 -780138363 -1048035113 -187102805</internalNodes>
          <leafValues>
            -6.4687317609786987e-01 5.5118960142135620e-01</leafValues></_></weakClassifiers></_>
    <!-- stage 6 -->
    <_>
      <maxWeakCount>5</maxWeakCount>
      <stageThreshold>-1.2417795658111572e+00</stageThreshold>
      <weakClassifiers>
        <_>
          <internalNodes>
            0 -1 59 1940648959 1398010647 -1331653649 -171611253
            1355711165 1346963840 -2138317921 -395209813</internalNodes>
          <leafValues>
            -6.6133004426956177e-01 6.1082476377487183e-01</leafValues></_>
        <_>
          <internalNodes>
            0 -1 82 -537137371 864272519 -2130540539 -1148747630
            -631159951 -661946237 -838776816 2109694471</internalNodes>
          <leafValues>
            -7.9186952114105225e-01 4.1221779584884644e-01</leafValues></_>
        <_>
          <internalNodes>
            0 -1 37 -637279550 -802055854 -788524796 -251289543
            -2134818184 834754577 -393508778 -235275341</internalNodes>
          <leafValues>
            -7.2929477691650391e-01 4.5173752307891846e-01</leafValues></_>
        <_>
          <internalNodes>
            0 -1 2 -288621586 -968732672 1887463844 -1660157944
            -1920890641 -1664581491 -385644401 -168971585</internalNodes>
          <leafValues>
            -7.0558565855026245e-01 4.8828005790710449e-01</leafValues></_>
        <_>
          <internalNodes>
            0 -1 34 -790628530 1422041290 -523892706 -258383645
            1132628155 1151926273 -477931060 -197541605</internalNodes>
          <leafValues>
            -6.8466496467590332e-01 4.6526813507080078e-01</leafValues></_></weakClassifiers></_>
    <!-- stage 7 -->
    <_>
      <maxWeakCount>6</maxWeakCount>
      <stageThreshold>-1.6270730495452881e+00</stageThreshold>
      <weakClassifiers>
        <_>
          <internalNodes>
            0 -1 58 1998812159 1364558111 -1330445399 388202511
            484871167 1356859425 -843854849 -184116873</internalNodes>
          <leafValues>
            -7.1744793653488159e-01 5.8101850748062134e-01</leafValues></_>
        <_>
          <internalNodes>
            0 -1 33 -426771765 -998060032 -2000629688 -220803059
            -1606239281 -2096506749 -221185137 -203424933</internalNodes>
          <leafValues>
            -6.0672158002853394e-01 5.9102851152420044e-01</leafValues></_>
        <_>
          <internalNodes>
            0 -1 14 581389932 1674942362 1073858825 1939309323
            1975954399 1892096008 415353643 -139068509</internalNodes>
          <leafValues>
            -7.8814095258712769e-01 4.0998134016990662e-01</leafValues></_>
        <_>
          <internalNodes>
            0 -1 53 -223879221 -233844288 1212973096 -1475870270 4252218
            -1068629934 814451023 -337197425</internalNodes>
          <leafValues>
            -5.3564536571502686e-01 6.3654732704162598e-01</leafValues></_>
        <_>
          <internalNodes>
            0 -1 29 -1291258420 1014961039 -378808570 -477953721
            1483446435 -643821309 1744963755 593864713</internalNodes>
          <leafValues>
            -7.1915215253829956e-01 4.6875676512718201e-01</leafValues></_>
        <_>
          <internalNodes>
            0 -1 20 -7602530 1431303049 1493777993 -217751368
            -1725746231 361935139 1067552815 -509949814</internalNodes>
          <leafValues>
            -5.9448814392089844e-01 5.5212604999542236e-01</leafValues></_></weakClassifiers></_>
    <!-- stage 8 -->
    <_>
      <maxWeakCount>5</maxWeakCount>
      <stageThreshold>-1.1216709613800049e+00</stageThreshold>
      <weakClassifiers>
        <_>
          <internalNodes>
            0 -1 56 -269237249 -204926106 -2113866865 -744488184
            1224856046 285804656 -913733237 -182353279</internalNodes>
          <leafValues>
            -7.3128342628479004e-01 5.4646015167236328e-01</leafValues></_>
        <_>
          <internalNodes>
            0 -1 3 16830716 1358958848 285218300 -787823396 33529
            -1736409088 -1073688439 -1708984126</internalNodes>
          <leafValues>
            -7.7717971801757812e-01 4.5157864689826965e-01</leafValues></_>
        <_>
          <internalNodes>
            0 -1 50 -210778290 -683617995 -268053375 1234878593
            138015720 -1610579832 -1333472760 -490241205</internalNodes>
          <leafValues>
            -6.7035853862762451e-01 5.3512549400329590e-01</leafValues></_>
        <_>
          <internalNodes>
            0 -1 69 -471106738 -251262719 1109455014 1603665920
            -2105507693 -1029633913 -2085574436 -1076555707</internalNodes>
          <leafValues>
            -7.5024521350860596e-01 4.5415323972702026e-01</leafValues></_>
        <_>
          <internalNodes>
            0 -1 38 -1049939073 1422110722 1357058053 1371508887
            -1573862734 21102728 -1876842472 -783570422</internalNodes>
          <leafValues>
            -5.6261217594146729e-01 6.0299748182296753e-01</leafValues></_></weakClassifiers></_>
    <!-- stage 9 -->
    <_>
      <maxWeakCount>6</maxWeakCount>
      <stageThreshold>-1.7974660396575928e+00</stageThreshold>
      <weakClassifiers>
        <_>
          <internalNodes>
            0 -1 26 2012206079 1078675838 1409386763 -220342773 17037967
            1350665353 -1987314725 -136469841</internalNodes>
          <leafValues>
            -6.8712872266769409e-01 4.9830508232116699e-01</leafValues></_>
        <_>
          <internalNodes>
            0 -1 65 -357827682 -178929404 -794948535 -819289894
            1108571594 608436241 1979468106 -407383109</internalNodes>
          <leafValues>
            -6.2169051170349121e-01 4.8333325982093811e-01</leafValues></_>
        <_>
          <internalNodes>
            0 -1 22 -85035026 -187674413 -612282036 923619744 464028848
            1928953915 1392542441 1795328147</internalNodes>
          <leafValues>
            -7.1983784437179565e-01 4.0690964460372925e-01</leafValues></_>
        <_>
          <internalNodes>
            0 -1 63 1922801738 -796847447 1217093632 1942348182
            831183563 1637077002 930076751 -479991202</internalNodes>
          <leafValues>
            -5.8484321832656860e-01 5.0949966907501221e-01</leafValues></_>
        <_>
          <internalNodes>
            0 -1 39 2143981450 1373348018 1359102272 1408746666
            -664722684 1078108234 -1478254521 1092272287</internalNodes>
          <leafValues>
            -7.7032518386840820e-01 3.8969191908836365e-01</leafValues></_>
        <_>
          <internalNodes>
            0 -1 49 1939890934 319488005 -2130083410 -653164151
            -1673950034 -146767864 -1459584834 -635854565</internalNodes>
          <leafValues>
            -6.4541178941726685e-01 4.4178423285484314e-01</leafValues></_></weakClassifiers></_>
    <!-- stage 10 -->
    <_>
      <maxWeakCount>7</maxWeakCount>
      <stageThreshold>-1.2916642427444458e+00</stageThreshold>
      <weakClassifiers>
        <_>
          <internalNodes>
            0 -1 8 -1298400265 1346376599 10818831 2142438145 -522524447
            1088454795 -1984266053 -37811845</internalNodes>
          <leafValues>
            -7.2188138961791992e-01 4.9196141958236694e-01</leafValues></_>
        <_>
          <internalNodes>
            0 -1 57 14836138 1896153859 -1330439217 -1123680209 25135598
            1900154121 -2088072785 -208299355</internalNodes>
          <leafValues>
            -7.4956905841827393e-01 3.6658632755279541e-01</leafValues></_>
        <_>
          <internalNodes>
            0 -1 44 -1316917 -964050454 -1056547890 1421856850
            1728196234 1087750211 -989867907 -1016997523</internalNodes>
          <leafValues>
            -5.5855971574783325e-01 5.4415881633758545e-01</leafValues></_>
        <_>
          <internalNodes>
            0 -1 30 -1348511801 -358725405 -125304792 1855881415
            -636761691 1904580611 -524041653 -135267367</internalNodes>
          <leafValues>
            -5.9053182601928711e-01 4.9167469143867493e-01</leafValues></_>
        <_>
          <internalNodes>
            0 -1 54 -145278814 805363866 822104092 -745795493 25993936
            -117339134 -397900997 790694751</internalNodes>
          <leafValues>
            -6.2383514642715454e-01 4.9396836757659912e-01</leafValues></_>
        <_>
          <internalNodes>
            0 -1 72 -715142130 -49999728 1346373664 -49184624 1216875079
            -173539309 -366360130 -82984953</internalNodes>
          <leafValues>
            -7.5448757410049438e-01 3.6131396889686584e-01</leafValues></_>
        <_>
          <internalNodes>
            0 -1 42 -705468646 1887814557 403394561 -1999541789
            1745590746 -1045954253 -725884918 -1609314103</internalNodes>
          <leafValues>
            -5.8873724937438965e-01 5.0919246673583984e-01</leafValues></_></weakClassifiers></_>
    <!-- stage 11 -->
    <_>
      <maxWeakCount>7</maxWeakCount>
      <stageThreshold>-1.2889342308044434e+00</stageThreshold>
      <weakClassifiers>
        <_>
          <internalNodes>
            0 -1 68 -33554725 -1067237237 4440713 1649854859 -524062397
            1149425949 -1148937723 -137373009</internalNodes>
          <leafValues>
            -6.8658697605133057e-01 4.8545861244201660e-01</leafValues></_>
        <_>
          <internalNodes>
            0 -1 27 -574752330 -1826733290 -181351764 1536332200
            1388854201 848347681 -114804289 -482219519</internalNodes>
          <leafValues>
            -7.9493457078933716e-01 3.6595240235328674e-01</leafValues></_>
        <_>
          <internalNodes>
            0 -1 55 675742588 -280756046 428280307 -146270961 1514710926
            -796819159 -391934289 -1148454753</internalNodes>
          <leafValues>
            -6.1767297983169556e-01 5.0201368331909180e-01</leafValues></_>
        <_>
          <internalNodes>
            0 -1 5 45085678 -1497181774 -510525398 -162104878
            -1836875557 -1593656696 -1559526962 -1210253405</internalNodes>
          <leafValues>
            -7.5061160326004028e-01 3.9659219980239868e-01</leafValues></_>
        <_>
          <internalNodes>
            0 -1 51 1136643051 1990133020 -519961941 -2094976860
            396548350 1360726146 -618492165 -182220079</internalNodes>
          <leafValues>
            -5.5343431234359741e-01 5.7991182804107666e-01</leafValues></_>
        <_>
          <internalNodes>
            0 -1 4 462765297 -29256333 -869935733 2129133781 -1584821801
            -14737061 -505254998 1068495550</internalNodes>
          <leafValues>
            -6.3649863004684448e-01 5.0924932956695557e-01</leafValues></_>
        <_>
          <internalNodes>
            0 -1 23 2140116802 1178993537 -1962277368 -1031584947
            19628162 805535776 -1918742451 -1279678275</internalNodes>
          <leafValues>
            -6.6183358430862427e-01 5.2423900365829468e-01</leafValues></_></weakClassifiers></_>
    <!-- stage 12 -->
    <_>
      <maxWeakCount>7</maxWeakCount>
      <stageThreshold>-1.3507072925567627e+00</stageThreshold>
      <weakClassifiers>
        <_>
          <internalNodes>
            0 -1 9 -1310982537 -801992549 15355213 -210009400 -727678800
            -257947455 -599159345 -175387957</internalNodes>
          <leafValues>
            -7.0019984245300293e-01 5.0166851282119751e-01</leafValues></_>
        <_>
          <internalNodes>
            0 -1 62 -1747716146 1352335907 810270848 1473761296
            -125596773 537690672 -225707989 1192723182</internalNodes>
          <leafValues>
            -6.3553047180175781e-01 4.5256289839744568e-01</leafValues></_>
        <_>
          <internalNodes>
            0 -1 45 282928527 534133997 -66862182 -540847277 -1594589201
            -308037138 -157560383 -269300045</internalNodes>
          <leafValues>
            -5.6827867031097412e-01 5.1936179399490356e-01</leafValues></_>
        <_>
          <internalNodes>
            0 -1 71 -1582440118 -1933319669 -528309882 -129847801
            1074377103 568459272 1469809864 -81745269</internalNodes>
          <leafValues>
            -6.2428331375122070e-01 4.8018282651901245e-01</leafValues></_>
        <_>
          <internalNodes>
            0 -1 18 1936919270 1178014045 -1591388092 -1063046996
            17438811 1887502344 1661012008 -244120896</internalNodes>
          <leafValues>
            -7.5157743692398071e-01 3.9392787218093872e-01</leafValues></_>
        <_>
          <internalNodes>
            0 -1 83 -35392583 -581337069 219235209 -1222535909
            -752787280 -1340570741 438150065 1073167715</internalNodes>
          <leafValues>
            -6.7256623506546021e-01 4.3129175901412964e-01</leafValues></_>
        <_>
          <internalNodes>
            0 -1 46 -972818642 -1073606333 -997162536 471040003
            1656984319 68419617 113365166 -1827229236</internalNodes>
          <leafValues>
            -7.1951043605804443e-01 4.9489018321037292e-01</leafValues></_></weakClassifiers></_>
    <!-- stage 13 -->
    <_>
      <maxWeakCount>6</maxWeakCount>
      <stageThreshold>-1.5844357013702393e+00</stageThreshold>
      <weakClassifiers>
        <_>
          <internalNodes>
            0 -1 66 -678563121 -779624315 -1005477233 1901274591
            -2138552985 68485124 -800066783 -11015217</internalNodes>
          <leafValues>
            -6.6335403919219971e-01 5.9240508079528809e-01</leafValues></_>
        <_>
          <internalNodes>
            0 -1 77 -86016249 -981340142 -1039109998 -653721517
            1620650565 -1061109631 -1987009905 -1192526897</internalNodes>
          <leafValues>
            -7.3307263851165771e-01 4.4230934977531433e-01</leafValues></_>
        <_>
          <internalNodes>
            0 -1 21 2038092162 1602424960 -1903524595 -1995898623
            -1467379397 1207992465 1527482761 2005137979</internalNodes>
          <leafValues>
            -5.9805154800415039e-01 5.3152060508728027e-01</leafValues></_>
        <_>
          <internalNodes>
            0 -1 16 873763678 1513362775 365547809 -447278287 1501568695
            1124632643 1367349373 -179437272</internalNodes>
          <leafValues>
            -6.6967588663101196e-01 4.8711910843849182e-01</leafValues></_>
        <_>
          <internalNodes>
            0 -1 67 -935860328 -614858725 822719045 -952721366
            -1062673494 47317135 -1852049252 -682907446</internalNodes>
          <leafValues>
            -5.3228771686553955e-01 6.0232669115066528e-01</leafValues></_>
        <_>
          <internalNodes>
            0 -1 75 -1621641731 -37643951 -2106646036 -73968227
            -897113395 -1114697793 9422496 1876888796</internalNodes>
          <leafValues>
            -6.7436099052429199e-01 4.7369113564491272e-01</leafValues></_></weakClassifiers></_>
    <!-- stage 14 -->
    <_>
      <maxWeakCount>7</maxWeakCount>
      <stageThreshold>-1.0158106088638306e+00</stageThreshold>
      <weakClassifiers>
        <_>
          <internalNodes>
            0 -1 41 1375720175 1348972697 202604621 -1862033269
            -2121277014 -909504128 -439441361 -69223894</internalNodes>
          <leafValues>
            -6.3680094480514526e-01 6.2279510498046875e-01</leafValues></_>
        <_>
          <internalNodes>
            0 -1 7 -2046887461 2129513179 -740168913 -1745883155
            -117769221 -793281799 -604243461 -671464465</internalNodes>
          <leafValues>
            -4.5339038968086243e-01 7.1318084001541138e-01</leafValues></_>
        <_>
          <internalNodes>
            0 -1 12 284075468 -720305792 -922154661 -175308389
            -2062837317 1962934920 -1702272037 -677262801</internalNodes>
          <leafValues>
            -7.7445805072784424e-01 4.1590234637260437e-01</leafValues></_>
        <_>
          <internalNodes>
            0 -1 15 1576001669 -1714841472 1140899850 -236208125 4887291
            1488324754 950175915 -2027878383</internalNodes>
          <leafValues>
            -5.4394501447677612e-01 5.4814678430557251e-01</leafValues></_>
        <_>
          <internalNodes>
            0 -1 35 2087492060 -232128342 -519430117 1898064783
            -916317279 1166774671 -418649253 1955701155</internalNodes>
          <leafValues>
            -6.7386674880981445e-01 4.8965013027191162e-01</leafValues></_>
        <_>
          <internalNodes>
            0 -1 40 -621577258 127726195 -939287544 1975710153
            1495861513 1085310980 -1555459840 -1577514028</internalNodes>
          <leafValues>
            -6.8075132369995117e-01 4.5818075537681580e-01</leafValues></_>
        <_>
          <internalNodes>
            0 -1 64 2077009740 -518565701 -536739831 -700268478
            -691425397 1413657142 -1560046961 -683748790</internalNodes>
          <leafValues>
            -6.4713883399963379e-01 5.1689243316650391e-01</leafValues></_></weakClassifiers></_></stages>
  <features>
    <_>
      <rect>
        0 2 4 20</rect></_>
    <_>
      <rect>
        0 4 15 20</rect></_>
    <_>
      <rect>
        0 16 14 16</rect></_>
    <_>
      <rect>
        0 40 41 8</rect></_>
    <_>
      <rect>
        0 58 4 2</rect></_>
    <_>
      <rect>
        3 9 6 14</rect></_>
    <_>
      <rect>
        5 1 28 21</rect></_>
    <_>
      <rect>
        14 29 23 7</rect></_>
    <_>
      <rect>
        16 5 16 18</rect></_>
    <_>
      <rect>
        17 5 15 19</rect></_>
    <_>
      <rect>
        17 14 10 15</rect></_>
    <_>
      <rect>
        18 0 9 17</rect></_>
    <_>
      <rect>
        23 0 15 20</rect></_>
    <_>
      <rect>
        26 12 13 17</rect></_>
    <_>
      <rect>
        27 2 12 15</rect></_>
    <_>
      <rect>
        27 15 29 11</rect></_>
    <_>
      <rect>
        28 20 17 8</rect></_>
    <_>
      <rect>
        30 1 23 21</rect></_>
    <_>
      <rect>
        33 13 18 12</rect></_>
    <_>
      <rect>
        33 17 7 11</rect></_>
    <_>
      <rect>
        33 19 10 8</rect></_>
    <_>
      <rect>
        33 31 22 8</rect></_>
    <_>
      <rect>
        34 12 19 8</rect></_>
    <_>
      <rect>
        34 19 6 9</rect></_>
    <_>
      <rect>
        35 20 9 8</rect></_>
    <_>
      <rect>
        36 17 18 10</rect></_>
    <_>
      <rect>
        37 12 6 13</rect></_>
    <_>
      <rect>
        40 16 18 16</rect></_>
    <_>
      <rect>
        40 18 7 10</rect></_>
    <_>
      <rect>
        43 20 19 10</rect></_>
    <_>
      <rect>
        43 23 5 6</rect></_>
    <_>
      <rect>
        44 11 18 14</rect></_>
    <_>
      <rect>
        44 13 7 12</rect></_>
    <_>
      <rect>
        44 16 5 10</rect></_>
    <_>
      <rect>
        44 16 14 14</rect></_>
    <_>
      <rect>
        46 23 9 7</rect></_>
    <_>
      <rect>
        47 18 6 13</rect></_>
    <_>
      <rect>
        48 9 5 16</rect></_>
    <_>
      <rect>
        48 13 8 13</rect></_>
    <_>
      <rect>
        48 20 6 10</rect></_>
    <_>
      <rect>
        49 14 13 8</rect></_>
    <_>
      <rect>
        51 2 7 16</rect></_>
    <_>
      <rect>
        51 17 11 10</rect></_>
    <_>
      <rect>
        52 17 7 10</rect></_>
    <_>
      <rect>
        53 14 7 13</rect></_>
    <_>
      <rect>
        54 7 2 2</rect></_>
    <_>
      <rect>
        56 7 11 16</rect></_>
    <_>
      <rect>
        56 7 11 18</rect></_>
    <_>
      <rect>
        56 12 7 13</rect></_>
    <_>
      <rect>
        57 1 18 14</rect></_>
    <_>
      <rect>
        57 12 12 7</rect></_>
    <_>
      <rect>
        58 12 18 13</rect></_>
    <_>
      <rect>
        59 9 10 13</rect></_>
    <_>
      <rect>
        59 14 6 13</rect></_>
    <_>
      <rect>
        59 35 5 8</rect></_>
    <_>
      <rect>
        60 5 7 3</rect></_>
    <_>
      <rect>
        60 15 17 13</rect></_>
    <_>
      <rect>
        62 1 17 17</rect></_>
    <_>
      <rect>
        62 6 17 15</rect></_>
    <_>
      <rect>
        62 11 17 14</rect></_>
    <_>
      <rect>
        63 19 12 9</rect></_>
    <_>
      <rect>
        64 9 16 16</rect></_>
    <_>
      <rect>
        64 23 5 10</rect></_>
    <_>
      <rect>
        66 18 4 10</rect></_>
    <_>
      <rect>
        67 23 9 7</rect></_>
    <_>
      <rect>
        68 18 8 11</rect></_>
    <_>
      <rect>
        69 13 5 12</rect></_>
    <_>
      <rect>
        69 16 8 10</rect></_>
    <_>
      <rect>
        71 17 4 9</rect></_>
    <_>
      <rect>
        72 12 16 17</rect></_>
    <_>
      <rect>
        77 6 17 19</rect></_>
    <_>
      <rect>
        80 8 8 14</rect></_>
    <_>
      <rect>
        82 11 15 3</rect></_>
    <_>
      <rect>
        84 34 14 10</rect></_>
    <_>
      <rect>
        104 0 8 19</rect></_>
    <_>
      <rect>
        105 56 5 2</rect></_>
    <_>
      <rect>
        107 4 7 17</rect></_>
    <_>
      <rect>
        109 0 4 11</rect></_>
    <_>
      <rect>
        109 22 3 7</rect></_>
    <_>
      <rect>
        110 25 5 13</rect></_>
    <_>
      <rect>
        112 3 3 19</rect></_>
    <_>
      <rect>
        113 1 4 15</rect></_>
    <_>
      <rect>
        116 3 4 20</rect></_>
    <_>
      <rect>
        116 52 4 4</rect></_></features></cascade>
</opencv_storage>
